## LambdaMART
## No. of trees = 1000
## No. of leaves = 10
## No. of threshold candidates = 256
## Learning rate = 0.1
## Stop early = 100

<ensemble>
	<tree id="1" weight="0.1">
		<split>
			<feature> 130 </feature>
			<threshold> 115.0 </threshold>
			<split pos="left">
				<feature> 134 </feature>
				<threshold> 0.0 </threshold>
				<split pos="left">
					<output> 1.3238561153411865 </output>
				</split>
				<split pos="right">
					<output> 2.0 </output>
				</split>
			</split>
			<split pos="right">
				<feature> 130 </feature>
				<threshold> 370.54297 </threshold>
				<split pos="left">
					<feature> 128 </feature>
					<threshold> 2.032665E7 </threshold>
					<split pos="left">
						<feature> 131 </feature>
						<threshold> 65023.016 </threshold>
						<split pos="left">
							<feature> 51 </feature>
							<threshold> 0.09765625 </threshold>
							<split pos="left">
								<feature> 80 </feature>
								<threshold> -4.514137 </threshold>
								<split pos="left">
									<output> 1.5468579530715942 </output>
								</split>
								<split pos="right">
									<feature> 56 </feature>
									<threshold> 0.296875 </threshold>
									<split pos="left">
										<feature> 49 </feature>
										<threshold> 0.3125 </threshold>
										<split pos="left">
											<output> 0.7275948524475098 </output>
										</split>
										<split pos="right">
											<output> 1.5422621965408325 </output>
										</split>
									</split>
									<split pos="right">
										<output> 1.961418867111206 </output>
									</split>
								</split>
							</split>
							<split pos="right">
								<output> 1.6248081922531128 </output>
							</split>
						</split>
						<split pos="right">
							<output> 1.5338921546936035 </output>
						</split>
					</split>
					<split pos="right">
						<output> 1.9540588855743408 </output>
					</split>
				</split>
				<split pos="right">
					<output> -0.9751715660095215 </output>
				</split>
			</split>
		</split>
	</tree>
	<tree id="2" weight="0.1">
		<split>
			<feature> 130 </feature>
			<threshold> 115.0 </threshold>
			<split pos="left">
				<feature> 134 </feature>
				<threshold> 0.0 </threshold>
				<split pos="left">
					<output> 1.2711166143417358 </output>
				</split>
				<split pos="right">
					<output> 1.7430790662765503 </output>
				</split>
			</split>
			<split pos="right">
				<feature> 130 </feature>
				<threshold> 370.54297 </threshold>
				<split pos="left">
					<feature> 128 </feature>
					<threshold> 2.032665E7 </threshold>
					<split pos="left">
						<feature> 49 </feature>
						<threshold> 0.3125 </threshold>
						<split pos="left">
							<feature> 80 </feature>
							<threshold> -4.514137 </threshold>
							<split pos="left">
								<feature> 129 </feature>
								<threshold> 6.0 </threshold>
								<split pos="left">
									<output> 1.0401991605758667 </output>
								</split>
								<split pos="right">
									<feature> 75 </feature>
									<threshold> 276.2302 </threshold>
									<split pos="left">
										<output> 1.7950714826583862 </output>
									</split>
									<split pos="right">
										<output> -2.0 </output>
									</split>
								</split>
							</split>
							<split pos="right">
								<output> 0.7220972180366516 </output>
							</split>
						</split>
						<split pos="right">
							<feature> 74 </feature>
							<threshold> 11.775033 </threshold>
							<split pos="left">
								<output> 1.7918357849121094 </output>
							</split>
							<split pos="right">
								<output> 1.4015525579452515 </output>
							</split>
						</split>
					</split>
					<split pos="right">
						<output> 1.7706884145736694 </output>
					</split>
				</split>
				<split pos="right">
					<output> -1.3902689218521118 </output>
				</split>
			</split>
		</split>
	</tree>
	<tree id="3" weight="0.1">
		<split>
			<feature> 130 </feature>
			<threshold> 115.0 </threshold>
			<split pos="left">
				<feature> 134 </feature>
				<threshold> 0.0 </threshold>
				<split pos="left">
					<output> 1.155001163482666 </output>
				</split>
				<split pos="right">
					<output> 1.5437027215957642 </output>
				</split>
			</split>
			<split pos="right">
				<feature> 128 </feature>
				<threshold> 5.3909832E7 </threshold>
				<split pos="left">
					<feature> 130 </feature>
					<threshold> 370.54297 </threshold>
					<split pos="left">
						<feature> 49 </feature>
						<threshold> 0.3125 </threshold>
						<split pos="left">
							<feature> 61 </feature>
							<threshold> 0.1484375 </threshold>
							<split pos="left">
								<feature> 80 </feature>
								<threshold> -4.514137 </threshold>
								<split pos="left">
									<feature> 129 </feature>
									<threshold> 6.0 </threshold>
									<split pos="left">
										<output> 0.4095725417137146 </output>
									</split>
									<split pos="right">
										<output> 1.5719428062438965 </output>
									</split>
								</split>
								<split pos="right">
									<output> 0.5294469594955444 </output>
								</split>
							</split>
							<split pos="right">
								<output> 1.2357981204986572 </output>
							</split>
						</split>
						<split pos="right">
							<feature> 74 </feature>
							<threshold> 11.775033 </threshold>
							<split pos="left">
								<output> 1.5931264162063599 </output>
							</split>
							<split pos="right">
								<output> 1.2239079475402832 </output>
							</split>
						</split>
					</split>
					<split pos="right">
						<output> -1.2019938230514526 </output>
					</split>
				</split>
				<split pos="right">
					<output> 1.5525753498077393 </output>
				</split>
			</split>
		</split>
	</tree>
	<tree id="4" weight="0.1">
		<split>
			<feature> 130 </feature>
			<threshold> 115.0 </threshold>
			<split pos="left">
				<feature> 134 </feature>
				<threshold> 0.0 </threshold>
				<split pos="left">
					<output> 1.020445466041565 </output>
				</split>
				<split pos="right">
					<output> 1.4136143922805786 </output>
				</split>
			</split>
			<split pos="right">
				<feature> 128 </feature>
				<threshold> 5.3909832E7 </threshold>
				<split pos="left">
					<feature> 130 </feature>
					<threshold> 370.54297 </threshold>
					<split pos="left">
						<feature> 49 </feature>
						<threshold> 0.3125 </threshold>
						<split pos="left">
							<feature> 61 </feature>
							<threshold> 0.1484375 </threshold>
							<split pos="left">
								<feature> 80 </feature>
								<threshold> -4.514137 </threshold>
								<split pos="left">
									<feature> 129 </feature>
									<threshold> 6.0 </threshold>
									<split pos="left">
										<output> 0.3383314311504364 </output>
									</split>
									<split pos="right">
										<output> 1.4427926540374756 </output>
									</split>
								</split>
								<split pos="right">
									<output> 0.42065703868865967 </output>
								</split>
							</split>
							<split pos="right">
								<output> 1.0273849964141846 </output>
							</split>
						</split>
						<split pos="right">
							<feature> 74 </feature>
							<threshold> 11.775033 </threshold>
							<split pos="left">
								<output> 1.464961051940918 </output>
							</split>
							<split pos="right">
								<output> 1.0917668342590332 </output>
							</split>
						</split>
					</split>
					<split pos="right">
						<output> -1.0583674907684326 </output>
					</split>
				</split>
				<split pos="right">
					<output> 1.436445713043213 </output>
				</split>
			</split>
		</split>
	</tree>
	<tree id="5" weight="0.1">
		<split>
			<feature> 130 </feature>
			<threshold> 115.0 </threshold>
			<split pos="left">
				<feature> 134 </feature>
				<threshold> 0.0 </threshold>
				<split pos="left">
					<output> 0.9114021062850952 </output>
				</split>
				<split pos="right">
					<output> 1.32345712184906 </output>
				</split>
			</split>
			<split pos="right">
				<feature> 128 </feature>
				<threshold> 5.3909832E7 </threshold>
				<split pos="left">
					<feature> 130 </feature>
					<threshold> 370.54297 </threshold>
					<split pos="left">
						<feature> 49 </feature>
						<threshold> 0.3125 </threshold>
						<split pos="left">
							<feature> 61 </feature>
							<threshold> 0.1484375 </threshold>
							<split pos="left">
								<feature> 80 </feature>
								<threshold> -4.514137 </threshold>
								<split pos="left">
									<feature> 129 </feature>
									<threshold> 6.0 </threshold>
									<split pos="left">
										<output> 0.2805546522140503 </output>
									</split>
									<split pos="right">
										<output> 1.3526997566223145 </output>
									</split>
								</split>
								<split pos="right">
									<output> 0.35094624757766724 </output>
								</split>
							</split>
							<split pos="right">
								<output> 0.9052678942680359 </output>
							</split>
						</split>
						<split pos="right">
							<feature> 74 </feature>
							<threshold> 11.775033 </threshold>
							<split pos="left">
								<output> 1.3766882419586182 </output>
							</split>
							<split pos="right">
								<output> 0.9857056140899658 </output>
							</split>
						</split>
					</split>
					<split pos="right">
						<output> -0.9460859298706055 </output>
					</split>
				</split>
				<split pos="right">
					<output> 1.3543373346328735 </output>
				</split>
			</split>
		</split>
	</tree>
	<tree id="6" weight="0.1">
		<split>
			<feature> 130 </feature>
			<threshold> 115.0 </threshold>
			<split pos="left">
				<feature> 134 </feature>
				<threshold> 0.0 </threshold>
				<split pos="left">
					<output> 0.8187474608421326 </output>
				</split>
				<split pos="right">
					<output> 1.2581977844238281 </output>
				</split>
			</split>
			<split pos="right">
				<feature> 128 </feature>
				<threshold> 5.3909832E7 </threshold>
				<split pos="left">
					<feature> 49 </feature>
					<threshold> 0.3125 </threshold>
					<split pos="left">
						<feature> 130 </feature>
						<threshold> 370.54297 </threshold>
						<split pos="left">
							<feature> 61 </feature>
							<threshold> 0.1484375 </threshold>
							<split pos="left">
								<feature> 80 </feature>
								<threshold> -4.514137 </threshold>
								<split pos="left">
									<feature> 129 </feature>
									<threshold> 6.0 </threshold>
									<split pos="left">
										<output> 0.21135787665843964 </output>
									</split>
									<split pos="right">
										<output> 1.2936758995056152 </output>
									</split>
								</split>
								<split pos="right">
									<output> 0.2919875681400299 </output>
								</split>
							</split>
							<split pos="right">
								<output> 0.8054196238517761 </output>
							</split>
						</split>
						<split pos="right">
							<output> -0.8643296360969543 </output>
						</split>
					</split>
					<split pos="right">
						<feature> 130 </feature>
						<threshold> 370.54297 </threshold>
						<split pos="left">
							<output> 0.9387924075126648 </output>
						</split>
						<split pos="right">
							<output> -0.245620995759964 </output>
						</split>
					</split>
				</split>
				<split pos="right">
					<output> 1.2930941581726074 </output>
				</split>
			</split>
		</split>
	</tree>
	<tree id="7" weight="0.1">
		<split>
			<feature> 130 </feature>
			<threshold> 115.0 </threshold>
			<split pos="left">
				<feature> 134 </feature>
				<threshold> 0.0 </threshold>
				<split pos="left">
					<output> 0.7044847011566162 </output>
				</split>
				<split pos="right">
					<output> 1.2092708349227905 </output>
				</split>
			</split>
			<split pos="right">
				<feature> 128 </feature>
				<threshold> 5.3909832E7 </threshold>
				<split pos="left">
					<feature> 49 </feature>
					<threshold> 0.3125 </threshold>
					<split pos="left">
						<feature> 130 </feature>
						<threshold> 370.54297 </threshold>
						<split pos="left">
							<feature> 76 </feature>
							<threshold> 302.34702 </threshold>
							<split pos="left">
								<feature> 66 </feature>
								<threshold> 0.01977539 </threshold>
								<split pos="left">
									<feature> 131 </feature>
									<threshold> 65023.016 </threshold>
									<split pos="left">
										<feature> 80 </feature>
										<threshold> -4.514137 </threshold>
										<split pos="left">
											<output> 0.9790195226669312 </output>
										</split>
										<split pos="right">
											<output> 0.1561659723520279 </output>
										</split>
									</split>
									<split pos="right">
										<output> 0.84801185131073 </output>
									</split>
								</split>
								<split pos="right">
									<output> 1.110801100730896 </output>
								</split>
							</split>
							<split pos="right">
								<output> 1.2697386741638184 </output>
							</split>
						</split>
						<split pos="right">
							<output> -0.7976828217506409 </output>
						</split>
					</split>
					<split pos="right">
						<output> 0.8250550031661987 </output>
					</split>
				</split>
				<split pos="right">
					<output> 1.1303707361221313 </output>
				</split>
			</split>
		</split>
	</tree>
	<tree id="8" weight="0.1">
		<split>
			<feature> 130 </feature>
			<threshold> 115.0 </threshold>
			<split pos="left">
				<feature> 134 </feature>
				<threshold> 0.0 </threshold>
				<split pos="left">
					<output> 0.6290440559387207 </output>
				</split>
				<split pos="right">
					<output> 1.1717345714569092 </output>
				</split>
			</split>
			<split pos="right">
				<feature> 128 </feature>
				<threshold> 5.3909832E7 </threshold>
				<split pos="left">
					<feature> 49 </feature>
					<threshold> 0.3125 </threshold>
					<split pos="left">
						<feature> 130 </feature>
						<threshold> 370.54297 </threshold>
						<split pos="left">
							<feature> 76 </feature>
							<threshold> 302.34702 </threshold>
							<split pos="left">
								<feature> 66 </feature>
								<threshold> 0.01977539 </threshold>
								<split pos="left">
									<feature> 131 </feature>
									<threshold> 65023.016 </threshold>
									<split pos="left">
										<feature> 80 </feature>
										<threshold> -4.514137 </threshold>
										<split pos="left">
											<output> 0.9199351072311401 </output>
										</split>
										<split pos="right">
											<output> 0.12090151757001877 </output>
										</split>
									</split>
									<split pos="right">
										<output> 0.756736159324646 </output>
									</split>
								</split>
								<split pos="right">
									<output> 1.0421439409255981 </output>
								</split>
							</split>
							<split pos="right">
								<output> 0.975164532661438 </output>
							</split>
						</split>
						<split pos="right">
							<output> -0.7225335836410522 </output>
						</split>
					</split>
					<split pos="right">
						<output> 0.7581653594970703 </output>
					</split>
				</split>
				<split pos="right">
					<output> 1.0724905729293823 </output>
				</split>
			</split>
		</split>
	</tree>
	<tree id="9" weight="0.1">
		<split>
			<feature> 128 </feature>
			<threshold> 5.3909832E7 </threshold>
			<split pos="left">
				<feature> 130 </feature>
				<threshold> 115.0 </threshold>
				<split pos="left">
					<feature> 134 </feature>
					<threshold> 0.0 </threshold>
					<split pos="left">
						<output> 0.538165271282196 </output>
					</split>
					<split pos="right">
						<output> 1.1426047086715698 </output>
					</split>
				</split>
				<split pos="right">
					<feature> 49 </feature>
					<threshold> 0.3125 </threshold>
					<split pos="left">
						<feature> 130 </feature>
						<threshold> 370.54297 </threshold>
						<split pos="left">
							<feature> 80 </feature>
							<threshold> 316.24802 </threshold>
							<split pos="left">
								<feature> 66 </feature>
								<threshold> 0.01977539 </threshold>
								<split pos="left">
									<feature> 80 </feature>
									<threshold> -4.514137 </threshold>
									<split pos="left">
										<output> 0.8667392730712891 </output>
									</split>
									<split pos="right">
										<output> 0.1494416892528534 </output>
									</split>
								</split>
								<split pos="right">
									<output> 0.9805908203125 </output>
								</split>
							</split>
							<split pos="right">
								<output> 1.019089937210083 </output>
							</split>
						</split>
						<split pos="right">
							<output> -0.6542267203330994 </output>
						</split>
					</split>
					<split pos="right">
						<feature> 130 </feature>
						<threshold> 370.54297 </threshold>
						<split pos="left">
							<output> 0.7311802506446838 </output>
						</split>
						<split pos="right">
							<output> 0.3594265878200531 </output>
						</split>
					</split>
				</split>
			</split>
			<split pos="right">
				<output> 1.0578272342681885 </output>
			</split>
		</split>
	</tree>
	<tree id="10" weight="0.1">
		<split>
			<feature> 128 </feature>
			<threshold> 5.3909832E7 </threshold>
			<split pos="left">
				<feature> 130 </feature>
				<threshold> 115.0 </threshold>
				<split pos="left">
					<output> 0.7951272130012512 </output>
				</split>
				<split pos="right">
					<feature> 49 </feature>
					<threshold> 0.3125 </threshold>
					<split pos="left">
						<feature> 130 </feature>
						<threshold> 370.54297 </threshold>
						<split pos="left">
							<feature> 76 </feature>
							<threshold> 302.34702 </threshold>
							<split pos="left">
								<feature> 55 </feature>
								<threshold> 0.33398438 </threshold>
								<split pos="left">
									<feature> 66 </feature>
									<threshold> 0.01977539 </threshold>
									<split pos="left">
										<feature> 80 </feature>
										<threshold> -4.514137 </threshold>
										<split pos="left">
											<output> 0.8181759119033813 </output>
										</split>
										<split pos="right">
											<feature> 131 </feature>
											<threshold> 65023.016 </threshold>
											<split pos="left">
												<output> 0.059536758810281754 </output>
											</split>
											<split pos="right">
												<output> 0.6228325963020325 </output>
											</split>
										</split>
									</split>
									<split pos="right">
										<output> 0.9250050187110901 </output>
									</split>
								</split>
								<split pos="right">
									<output> -2.357771635055542 </output>
								</split>
							</split>
							<split pos="right">
								<output> 0.7953310608863831 </output>
							</split>
						</split>
						<split pos="right">
							<output> -0.5870436429977417 </output>
						</split>
					</split>
					<split pos="right">
						<output> 0.6434356570243835 </output>
					</split>
				</split>
			</split>
			<split pos="right">
				<output> 1.00981867313385 </output>
			</split>
		</split>
	</tree>
	<tree id="11" weight="0.1">
		<split>
			<feature> 128 </feature>
			<threshold> 5.3909832E7 </threshold>
			<split pos="left">
				<feature> 130 </feature>
				<threshold> 115.0 </threshold>
				<split pos="left">
					<output> 0.7388978004455566 </output>
				</split>
				<split pos="right">
					<feature> 49 </feature>
					<threshold> 0.3125 </threshold>
					<split pos="left">
						<feature> 130 </feature>
						<threshold> 370.54297 </threshold>
						<split pos="left">
							<feature> 80 </feature>
							<threshold> 316.24802 </threshold>
							<split pos="left">
								<feature> 66 </feature>
								<threshold> 0.01977539 </threshold>
								<split pos="left">
									<feature> 80 </feature>
									<threshold> -4.514137 </threshold>
									<split pos="left">
										<output> 0.7726345658302307 </output>
									</split>
									<split pos="right">
										<feature> 131 </feature>
										<threshold> 65023.016 </threshold>
										<split pos="left">
											<output> 0.03162562474608421 </output>
										</split>
										<split pos="right">
											<output> 0.5546406507492065 </output>
										</split>
									</split>
								</split>
								<split pos="right">
									<output> 0.8712727427482605 </output>
								</split>
							</split>
							<split pos="right">
								<output> 0.8194365501403809 </output>
							</split>
						</split>
						<split pos="right">
							<output> -0.5447103381156921 </output>
						</split>
					</split>
					<split pos="right">
						<feature> 130 </feature>
						<threshold> 370.54297 </threshold>
						<split pos="left">
							<output> 0.62099289894104 </output>
						</split>
						<split pos="right">
							<output> 0.33181697130203247 </output>
						</split>
					</split>
				</split>
			</split>
			<split pos="right">
				<output> 0.9680191278457642 </output>
			</split>
		</split>
	</tree>
	<tree id="12" weight="0.1">
		<split>
			<feature> 128 </feature>
			<threshold> 5.3909832E7 </threshold>
			<split pos="left">
				<feature> 130 </feature>
				<threshold> 115.0 </threshold>
				<split pos="left">
					<output> 0.683932363986969 </output>
				</split>
				<split pos="right">
					<feature> 49 </feature>
					<threshold> 0.3125 </threshold>
					<split pos="left">
						<feature> 130 </feature>
						<threshold> 370.54297 </threshold>
						<split pos="left">
							<feature> 76 </feature>
							<threshold> 302.34702 </threshold>
							<split pos="left">
								<feature> 66 </feature>
								<threshold> 0.01977539 </threshold>
								<split pos="left">
									<feature> 80 </feature>
									<threshold> -4.514137 </threshold>
									<split pos="left">
										<output> 0.7292062044143677 </output>
									</split>
									<split pos="right">
										<feature> 131 </feature>
										<threshold> 65023.016 </threshold>
										<split pos="left">
											<output> 0.013515747152268887 </output>
										</split>
										<split pos="right">
											<output> 0.49324676394462585 </output>
										</split>
									</split>
								</split>
								<split pos="right">
									<output> 0.81926429271698 </output>
								</split>
							</split>
							<split pos="right">
								<output> 0.7119962573051453 </output>
							</split>
						</split>
						<split pos="right">
							<output> -0.4868345260620117 </output>
						</split>
					</split>
					<split pos="right">
						<feature> 130 </feature>
						<threshold> 370.54297 </threshold>
						<split pos="left">
							<output> 0.5685784816741943 </output>
						</split>
						<split pos="right">
							<output> 0.33288878202438354 </output>
						</split>
					</split>
				</split>
			</split>
			<split pos="right">
				<output> 0.9224451184272766 </output>
			</split>
		</split>
	</tree>
	<tree id="13" weight="0.1">
		<split>
			<feature> 128 </feature>
			<threshold> 5.3909832E7 </threshold>
			<split pos="left">
				<feature> 130 </feature>
				<threshold> 115.0 </threshold>
				<split pos="left">
					<output> 0.631000816822052 </output>
				</split>
				<split pos="right">
					<feature> 49 </feature>
					<threshold> 0.3125 </threshold>
					<split pos="left">
						<feature> 108 </feature>
						<threshold> 17.9903 </threshold>
						<split pos="left">
							<feature> 51 </feature>
							<threshold> 0.1484375 </threshold>
							<split pos="left">
								<feature> 115 </feature>
								<threshold> -7.850949 </threshold>
								<split pos="left">
									<output> -0.5240593552589417 </output>
								</split>
								<split pos="right">
									<output> -0.03580872714519501 </output>
								</split>
							</split>
							<split pos="right">
								<output> 0.5994421243667603 </output>
							</split>
						</split>
						<split pos="right">
							<feature> 101 </feature>
							<threshold> 0.21484375 </threshold>
							<split pos="left">
								<output> 1.0770984888076782 </output>
							</split>
							<split pos="right">
								<output> 0.21110793948173523 </output>
							</split>
						</split>
					</split>
					<split pos="right">
						<feature> 130 </feature>
						<threshold> 370.54297 </threshold>
						<split pos="left">
							<feature> 74 </feature>
							<threshold> 11.775033 </threshold>
							<split pos="left">
								<output> 1.1790416240692139 </output>
							</split>
							<split pos="right">
								<output> 0.4573357403278351 </output>
							</split>
						</split>
						<split pos="right">
							<output> 0.3308820426464081 </output>
						</split>
					</split>
				</split>
			</split>
			<split pos="right">
				<output> 0.8797571659088135 </output>
			</split>
		</split>
	</tree>
	<tree id="14" weight="0.1">
		<split>
			<feature> 128 </feature>
			<threshold> 5.3909832E7 </threshold>
			<split pos="left">
				<feature> 130 </feature>
				<threshold> 115.0 </threshold>
				<split pos="left">
					<output> 0.5118008255958557 </output>
				</split>
				<split pos="right">
					<feature> 130 </feature>
					<threshold> 370.54297 </threshold>
					<split pos="left">
						<feature> 49 </feature>
						<threshold> 0.3125 </threshold>
						<split pos="left">
							<feature> 76 </feature>
							<threshold> 302.34702 </threshold>
							<split pos="left">
								<feature> 108 </feature>
								<threshold> 18.177698 </threshold>
								<split pos="left">
									<feature> 131 </feature>
									<threshold> 65023.016 </threshold>
									<split pos="left">
										<output> -0.137187197804451 </output>
									</split>
									<split pos="right">
										<output> 0.5590821504592896 </output>
									</split>
								</split>
								<split pos="right">
									<feature> 101 </feature>
									<threshold> 0.21484375 </threshold>
									<split pos="left">
										<output> 1.1609151363372803 </output>
									</split>
									<split pos="right">
										<output> 0.3367895781993866 </output>
									</split>
								</split>
							</split>
							<split pos="right">
								<output> 0.6311628818511963 </output>
							</split>
						</split>
						<split pos="right">
							<feature> 74 </feature>
							<threshold> 12.131852 </threshold>
							<split pos="left">
								<output> 1.1600401401519775 </output>
							</split>
							<split pos="right">
								<output> 0.39654576778411865 </output>
							</split>
						</split>
					</split>
					<split pos="right">
						<output> -0.41732192039489746 </output>
					</split>
				</split>
			</split>
			<split pos="right">
				<output> 0.839695930480957 </output>
			</split>
		</split>
	</tree>
	<tree id="15" weight="0.1">
		<split>
			<feature> 128 </feature>
			<threshold> 5.3909832E7 </threshold>
			<split pos="left">
				<feature> 130 </feature>
				<threshold> 115.0 </threshold>
				<split pos="left">
					<output> 0.45998772978782654 </output>
				</split>
				<split pos="right">
					<feature> 49 </feature>
					<threshold> 0.3 </threshold>
					<split pos="left">
						<feature> 108 </feature>
						<threshold> 18.177698 </threshold>
						<split pos="left">
							<feature> 51 </feature>
							<threshold> 0.1484375 </threshold>
							<split pos="left">
								<output> -0.3720947504043579 </output>
							</split>
							<split pos="right">
								<output> 0.6357495784759521 </output>
							</split>
						</split>
						<split pos="right">
							<feature> 101 </feature>
							<threshold> 0.21484375 </threshold>
							<split pos="left">
								<output> 1.0339020490646362 </output>
							</split>
							<split pos="right">
								<feature> 127 </feature>
								<threshold> 10.0 </threshold>
								<split pos="left">
									<output> 2.1856706142425537 </output>
								</split>
								<split pos="right">
									<feature> 66 </feature>
									<threshold> 0.01977539 </threshold>
									<split pos="left">
										<feature> 131 </feature>
										<threshold> 5120.8438 </threshold>
										<split pos="left">
											<output> 0.6417098641395569 </output>
										</split>
										<split pos="right">
											<output> 0.14992162585258484 </output>
										</split>
									</split>
									<split pos="right">
										<output> 0.930862307548523 </output>
									</split>
								</split>
							</split>
						</split>
					</split>
					<split pos="right">
						<output> 0.4106084406375885 </output>
					</split>
				</split>
			</split>
			<split pos="right">
				<output> 0.7983550429344177 </output>
			</split>
		</split>
	</tree>
	<tree id="16" weight="0.1">
		<split>
			<feature> 128 </feature>
			<threshold> 5.3909832E7 </threshold>
			<split pos="left">
				<feature> 130 </feature>
				<threshold> 370.54297 </threshold>
				<split pos="left">
					<feature> 49 </feature>
					<threshold> 0.3 </threshold>
					<split pos="left">
						<feature> 76 </feature>
						<threshold> 302.34702 </threshold>
						<split pos="left">
							<feature> 110 </feature>
							<threshold> 69.42126 </threshold>
							<split pos="left">
								<feature> 130 </feature>
								<threshold> 115.0 </threshold>
								<split pos="left">
									<output> 0.4383912980556488 </output>
								</split>
								<split pos="right">
									<feature> 108 </feature>
									<threshold> 18.177698 </threshold>
									<split pos="left">
										<output> -0.05297081917524338 </output>
									</split>
									<split pos="right">
										<feature> 101 </feature>
										<threshold> 0.21484375 </threshold>
										<split pos="left">
											<output> 1.13126802444458 </output>
										</split>
										<split pos="right">
											<feature> 25 </feature>
											<threshold> 2.5546875 </threshold>
											<split pos="left">
												<output> 1.1487224102020264 </output>
											</split>
											<split pos="right">
												<output> 0.2610061764717102 </output>
											</split>
										</split>
									</split>
								</split>
							</split>
							<split pos="right">
								<output> 1.3862769603729248 </output>
							</split>
						</split>
						<split pos="right">
							<output> 0.5364134311676025 </output>
						</split>
					</split>
					<split pos="right">
						<output> 0.37887197732925415 </output>
					</split>
				</split>
				<split pos="right">
					<output> -0.35933399200439453 </output>
				</split>
			</split>
			<split pos="right">
				<output> 0.755564272403717 </output>
			</split>
		</split>
	</tree>
	<tree id="17" weight="0.1">
		<split>
			<feature> 128 </feature>
			<threshold> 5.3909832E7 </threshold>
			<split pos="left">
				<feature> 130 </feature>
				<threshold> 115.0 </threshold>
				<split pos="left">
					<output> 0.40914270281791687 </output>
				</split>
				<split pos="right">
					<feature> 108 </feature>
					<threshold> 18.739895 </threshold>
					<split pos="left">
						<feature> 49 </feature>
						<threshold> 0.571429 </threshold>
						<split pos="left">
							<feature> 49 </feature>
							<threshold> 0.375 </threshold>
							<split pos="left">
								<feature> 64 </feature>
								<threshold> 0.3 </threshold>
								<split pos="left">
									<feature> 115 </feature>
									<threshold> -8.112648 </threshold>
									<split pos="left">
										<output> -0.5696340203285217 </output>
									</split>
									<split pos="right">
										<output> 0.0844082236289978 </output>
									</split>
								</split>
								<split pos="right">
									<output> 0.9653996229171753 </output>
								</split>
							</split>
							<split pos="right">
								<output> 0.8516805768013 </output>
							</split>
						</split>
						<split pos="right">
							<output> -2.8606719970703125 </output>
						</split>
					</split>
					<split pos="right">
						<feature> 101 </feature>
						<threshold> 0.21484375 </threshold>
						<split pos="left">
							<output> 0.9989892840385437 </output>
						</split>
						<split pos="right">
							<feature> 131 </feature>
							<threshold> 5120.8438 </threshold>
							<split pos="left">
								<output> 0.5380052924156189 </output>
							</split>
							<split pos="right">
								<output> 0.17766231298446655 </output>
							</split>
						</split>
					</split>
				</split>
			</split>
			<split pos="right">
				<output> 0.7009327411651611 </output>
			</split>
		</split>
	</tree>
	<tree id="18" weight="0.1">
		<split>
			<feature> 128 </feature>
			<threshold> 5.3909832E7 </threshold>
			<split pos="left">
				<feature> 109 </feature>
				<threshold> 25.912046 </threshold>
				<split pos="left">
					<feature> 130 </feature>
					<threshold> 115.0 </threshold>
					<split pos="left">
						<output> 0.3995814621448517 </output>
					</split>
					<split pos="right">
						<feature> 55 </feature>
						<threshold> 0.01171875 </threshold>
						<split pos="left">
							<output> -0.3471043109893799 </output>
						</split>
						<split pos="right">
							<feature> 130 </feature>
							<threshold> 370.54297 </threshold>
							<split pos="left">
								<feature> 116 </feature>
								<threshold> -3.759422 </threshold>
								<split pos="left">
									<feature> 110 </feature>
									<threshold> 69.42126 </threshold>
									<split pos="left">
										<feature> 127 </feature>
										<threshold> 18.0 </threshold>
										<split pos="left">
											<output> 0.7982807159423828 </output>
										</split>
										<split pos="right">
											<feature> 133 </feature>
											<threshold> 6.0 </threshold>
											<split pos="left">
												<output> 0.40339529514312744 </output>
											</split>
											<split pos="right">
												<output> 0.03943154588341713 </output>
											</split>
										</split>
									</split>
									<split pos="right">
										<output> 1.2604897022247314 </output>
									</split>
								</split>
								<split pos="right">
									<output> 0.8492060899734497 </output>
								</split>
							</split>
							<split pos="right">
								<output> 0.23397347331047058 </output>
							</split>
						</split>
					</split>
				</split>
				<split pos="right">
					<output> 0.6238915920257568 </output>
				</split>
			</split>
			<split pos="right">
				<output> 0.5634629130363464 </output>
			</split>
		</split>
	</tree>
	<tree id="19" weight="0.1">
		<split>
			<feature> 128 </feature>
			<threshold> 5.3909832E7 </threshold>
			<split pos="left">
				<feature> 71 </feature>
				<threshold> 2188.7727 </threshold>
				<split pos="left">
					<feature> 130 </feature>
					<threshold> 370.54297 </threshold>
					<split pos="left">
						<feature> 50 </feature>
						<threshold> 0.5474338 </threshold>
						<split pos="left">
							<feature> 55 </feature>
							<threshold> 0.01171875 </threshold>
							<split pos="left">
								<feature> 134 </feature>
								<threshold> 0.0 </threshold>
								<split pos="left">
									<output> -0.08236097544431686 </output>
								</split>
								<split pos="right">
									<output> 0.8887560367584229 </output>
								</split>
							</split>
							<split pos="right">
								<feature> 127 </feature>
								<threshold> 18.0 </threshold>
								<split pos="left">
									<output> 0.938947319984436 </output>
								</split>
								<split pos="right">
									<feature> 116 </feature>
									<threshold> -4.010048 </threshold>
									<split pos="left">
										<feature> 106 </feature>
										<threshold> 30.187931 </threshold>
										<split pos="left">
											<output> 0.07182019203901291 </output>
										</split>
										<split pos="right">
											<output> 0.5482984185218811 </output>
										</split>
									</split>
									<split pos="right">
										<output> 0.875529408454895 </output>
									</split>
								</split>
							</split>
						</split>
						<split pos="right">
							<output> 1.1825875043869019 </output>
						</split>
					</split>
					<split pos="right">
						<output> -0.32080379128456116 </output>
					</split>
				</split>
				<split pos="right">
					<output> -4.3341965675354 </output>
				</split>
			</split>
			<split pos="right">
				<output> 0.530813992023468 </output>
			</split>
		</split>
	</tree>
	<tree id="20" weight="0.1">
		<split>
			<feature> 128 </feature>
			<threshold> 5.3909832E7 </threshold>
			<split pos="left">
				<feature> 55 </feature>
				<threshold> 0.01171875 </threshold>
				<split pos="left">
					<output> -0.339801162481308 </output>
				</split>
				<split pos="right">
					<feature> 130 </feature>
					<threshold> 370.54297 </threshold>
					<split pos="left">
						<feature> 127 </feature>
						<threshold> 18.0 </threshold>
						<split pos="left">
							<output> 0.889886736869812 </output>
						</split>
						<split pos="right">
							<feature> 68 </feature>
							<threshold> 0.22265625 </threshold>
							<split pos="left">
								<feature> 116 </feature>
								<threshold> -4.010048 </threshold>
								<split pos="left">
									<feature> 50 </feature>
									<threshold> 0.5022332 </threshold>
									<split pos="left">
										<feature> 61 </feature>
										<threshold> 0.03515625 </threshold>
										<split pos="left">
											<feature> 127 </feature>
											<threshold> 24.0 </threshold>
											<split pos="left">
												<output> 0.9316255450248718 </output>
											</split>
											<split pos="right">
												<output> 0.3884863555431366 </output>
											</split>
										</split>
										<split pos="right">
											<output> -0.08053790032863617 </output>
										</split>
									</split>
									<split pos="right">
										<output> 1.1654882431030273 </output>
									</split>
								</split>
								<split pos="right">
									<output> 0.8380516171455383 </output>
								</split>
							</split>
							<split pos="right">
								<output> 1.0992262363433838 </output>
							</split>
						</split>
					</split>
					<split pos="right">
						<output> 0.21320901811122894 </output>
					</split>
				</split>
			</split>
			<split pos="right">
				<output> 0.48119160532951355 </output>
			</split>
		</split>
	</tree>
	<tree id="21" weight="0.1">
		<split>
			<feature> 128 </feature>
			<threshold> 5.3909832E7 </threshold>
			<split pos="left">
				<feature> 108 </feature>
				<threshold> 18.739895 </threshold>
				<split pos="left">
					<feature> 24 </feature>
					<threshold> 4.0 </threshold>
					<split pos="left">
						<feature> 134 </feature>
						<threshold> 0.0 </threshold>
						<split pos="left">
							<feature> 55 </feature>
							<threshold> 0.099609375 </threshold>
							<split pos="left">
								<feature> 74 </feature>
								<threshold> 32.470547 </threshold>
								<split pos="left">
									<feature> 115 </feature>
									<threshold> -8.112648 </threshold>
									<split pos="left">
										<output> -0.5496739745140076 </output>
									</split>
									<split pos="right">
										<output> -0.035243920981884 </output>
									</split>
								</split>
								<split pos="right">
									<output> 0.8661662936210632 </output>
								</split>
							</split>
							<split pos="right">
								<output> 0.4364290237426758 </output>
							</split>
						</split>
						<split pos="right">
							<output> 1.3909491300582886 </output>
						</split>
					</split>
					<split pos="right">
						<output> 1.0363736152648926 </output>
					</split>
				</split>
				<split pos="right">
					<feature> 101 </feature>
					<threshold> 0.21484375 </threshold>
					<split pos="left">
						<output> 0.9724190831184387 </output>
					</split>
					<split pos="right">
						<feature> 131 </feature>
						<threshold> 256.9922 </threshold>
						<split pos="left">
							<output> 0.7331693172454834 </output>
						</split>
						<split pos="right">
							<output> 0.24367988109588623 </output>
						</split>
					</split>
				</split>
			</split>
			<split pos="right">
				<output> 0.4318428635597229 </output>
			</split>
		</split>
	</tree>
	<tree id="22" weight="0.1">
		<split>
			<feature> 134 </feature>
			<threshold> 0.0 </threshold>
			<split pos="left">
				<feature> 128 </feature>
				<threshold> 5.3909832E7 </threshold>
				<split pos="left">
					<feature> 74 </feature>
					<threshold> 31.756907 </threshold>
					<split pos="left">
						<feature> 55 </feature>
						<threshold> 0.01171875 </threshold>
						<split pos="left">
							<feature> 74 </feature>
							<threshold> 31.043268 </threshold>
							<split pos="left">
								<output> -0.385437548160553 </output>
							</split>
							<split pos="right">
								<output> -4.433019638061523 </output>
							</split>
						</split>
						<split pos="right">
							<feature> 130 </feature>
							<threshold> 370.54297 </threshold>
							<split pos="left">
								<feature> 127 </feature>
								<threshold> 24.0 </threshold>
								<split pos="left">
									<output> 0.6754566431045532 </output>
								</split>
								<split pos="right">
									<feature> 116 </feature>
									<threshold> -4.010048 </threshold>
									<split pos="left">
										<feature> 61 </feature>
										<threshold> 0.03515625 </threshold>
										<split pos="left">
											<output> 0.3285999000072479 </output>
										</split>
										<split pos="right">
											<output> -0.19887936115264893 </output>
										</split>
									</split>
									<split pos="right">
										<output> 0.778206467628479 </output>
									</split>
								</split>
							</split>
							<split pos="right">
								<output> -0.013965793885290623 </output>
							</split>
						</split>
					</split>
					<split pos="right">
						<output> 0.5724369883537292 </output>
					</split>
				</split>
				<split pos="right">
					<output> 0.3921724557876587 </output>
				</split>
			</split>
			<split pos="right">
				<output> 1.3109935522079468 </output>
			</split>
		</split>
	</tree>
	<tree id="23" weight="0.1">
		<split>
			<feature> 134 </feature>
			<threshold> 0.0 </threshold>
			<split pos="left">
				<feature> 128 </feature>
				<threshold> 5.3909832E7 </threshold>
				<split pos="left">
					<feature> 74 </feature>
					<threshold> 31.756907 </threshold>
					<split pos="left">
						<feature> 55 </feature>
						<threshold> 0.01171875 </threshold>
						<split pos="left">
							<output> -0.39272812008857727 </output>
						</split>
						<split pos="right">
							<feature> 130 </feature>
							<threshold> 370.54297 </threshold>
							<split pos="left">
								<feature> 127 </feature>
								<threshold> 24.0 </threshold>
								<split pos="left">
									<output> 0.6273631453514099 </output>
								</split>
								<split pos="right">
									<feature> 90 </feature>
									<threshold> 367.88876 </threshold>
									<split pos="left">
										<feature> 76 </feature>
										<threshold> 302.34702 </threshold>
										<split pos="left">
											<feature> 61 </feature>
											<threshold> 0.03515625 </threshold>
											<split pos="left">
												<output> 0.30922257900238037 </output>
											</split>
											<split pos="right">
												<output> -0.2173960655927658 </output>
											</split>
										</split>
										<split pos="right">
											<output> 0.9373614192008972 </output>
										</split>
									</split>
									<split pos="right">
										<output> -1.9591602087020874 </output>
									</split>
								</split>
							</split>
							<split pos="right">
								<output> -0.05613274872303009 </output>
							</split>
						</split>
					</split>
					<split pos="right">
						<output> 0.5667725801467896 </output>
					</split>
				</split>
				<split pos="right">
					<output> 0.44067543745040894 </output>
				</split>
			</split>
			<split pos="right">
				<output> 1.151733160018921 </output>
			</split>
		</split>
	</tree>
	<tree id="24" weight="0.1">
		<split>
			<feature> 134 </feature>
			<threshold> 0.0 </threshold>
			<split pos="left">
				<feature> 128 </feature>
				<threshold> 5.3909832E7 </threshold>
				<split pos="left">
					<feature> 74 </feature>
					<threshold> 31.756907 </threshold>
					<split pos="left">
						<feature> 131 </feature>
						<threshold> 768.97656 </threshold>
						<split pos="left">
							<output> 0.31000736355781555 </output>
						</split>
						<split pos="right">
							<feature> 13 </feature>
							<threshold> 0.0 </threshold>
							<split pos="left">
								<output> 0.45292702317237854 </output>
							</split>
							<split pos="right">
								<feature> 130 </feature>
								<threshold> 115.0 </threshold>
								<split pos="left">
									<output> -0.44596344232559204 </output>
								</split>
								<split pos="right">
									<feature> 74 </feature>
									<threshold> 31.043268 </threshold>
									<split pos="left">
										<feature> 108 </feature>
										<threshold> 27.360245 </threshold>
										<split pos="left">
											<feature> 109 </feature>
											<threshold> 26.962534 </threshold>
											<split pos="left">
												<output> -0.2622442841529846 </output>
											</split>
											<split pos="right">
												<output> 0.880869448184967 </output>
											</split>
										</split>
										<split pos="right">
											<output> 0.37150338292121887 </output>
										</split>
									</split>
									<split pos="right">
										<output> -1.8957992792129517 </output>
									</split>
								</split>
							</split>
						</split>
					</split>
					<split pos="right">
						<output> 0.5359475612640381 </output>
					</split>
				</split>
				<split pos="right">
					<output> 0.37478014826774597 </output>
				</split>
			</split>
			<split pos="right">
				<output> 1.106225848197937 </output>
			</split>
		</split>
	</tree>
	<tree id="25" weight="0.1">
		<split>
			<feature> 134 </feature>
			<threshold> 0.0 </threshold>
			<split pos="left">
				<feature> 11 </feature>
				<threshold> 0.0 </threshold>
				<split pos="left">
					<feature> 16 </feature>
					<threshold> 18.542278 </threshold>
					<split pos="left">
						<output> 0.27919209003448486 </output>
					</split>
					<split pos="right">
						<output> 1.2646474838256836 </output>
					</split>
				</split>
				<split pos="right">
					<feature> 128 </feature>
					<threshold> 5.3909832E7 </threshold>
					<split pos="left">
						<feature> 131 </feature>
						<threshold> 768.97656 </threshold>
						<split pos="left">
							<feature> 76 </feature>
							<threshold> 292.14365 </threshold>
							<split pos="left">
								<output> 0.2957136332988739 </output>
							</split>
							<split pos="right">
								<output> 1.1186354160308838 </output>
							</split>
						</split>
						<split pos="right">
							<feature> 74 </feature>
							<threshold> 31.756907 </threshold>
							<split pos="left">
								<feature> 55 </feature>
								<threshold> 0.01171875 </threshold>
								<split pos="left">
									<output> -0.5302513241767883 </output>
								</split>
								<split pos="right">
									<feature> 133 </feature>
									<threshold> 247.0 </threshold>
									<split pos="left">
										<output> 0.0361153781414032 </output>
									</split>
									<split pos="right">
										<output> -2.6422858238220215 </output>
									</split>
								</split>
							</split>
							<split pos="right">
								<output> 0.5054275989532471 </output>
							</split>
						</split>
					</split>
					<split pos="right">
						<output> 0.9701328873634338 </output>
					</split>
				</split>
			</split>
			<split pos="right">
				<output> 0.9874693155288696 </output>
			</split>
		</split>
	</tree>
	<tree id="26" weight="0.1">
		<split>
			<feature> 127 </feature>
			<threshold> 7.0 </threshold>
			<split pos="left">
				<output> 1.3237292766571045 </output>
			</split>
			<split pos="right">
				<feature> 11 </feature>
				<threshold> 0.0 </threshold>
				<split pos="left">
					<output> 0.6995804309844971 </output>
				</split>
				<split pos="right">
					<feature> 128 </feature>
					<threshold> 5.3909832E7 </threshold>
					<split pos="left">
						<feature> 134 </feature>
						<threshold> 0.0 </threshold>
						<split pos="left">
							<feature> 108 </feature>
							<threshold> 27.360245 </threshold>
							<split pos="left">
								<feature> 109 </feature>
								<threshold> 25.912046 </threshold>
								<split pos="left">
									<feature> 131 </feature>
									<threshold> 768.97656 </threshold>
									<split pos="left">
										<output> 0.22974896430969238 </output>
									</split>
									<split pos="right">
										<feature> 106 </feature>
										<threshold> 67.8885 </threshold>
										<split pos="left">
											<feature> 50 </feature>
											<threshold> 0.027622763 </threshold>
											<split pos="left">
												<output> -0.6726783514022827 </output>
											</split>
											<split pos="right">
												<output> -0.13023513555526733 </output>
											</split>
										</split>
										<split pos="right">
											<output> 1.0236222743988037 </output>
										</split>
									</split>
								</split>
								<split pos="right">
									<output> 0.710792064666748 </output>
								</split>
							</split>
							<split pos="right">
								<output> 0.4796864688396454 </output>
							</split>
						</split>
						<split pos="right">
							<output> 0.8621090650558472 </output>
						</split>
					</split>
					<split pos="right">
						<output> 0.8807255625724792 </output>
					</split>
				</split>
			</split>
		</split>
	</tree>
	<tree id="27" weight="0.1">
		<split>
			<feature> 14 </feature>
			<threshold> 2.0 </threshold>
			<split pos="left">
				<output> 1.3502614498138428 </output>
			</split>
			<split pos="right">
				<feature> 127 </feature>
				<threshold> 7.0 </threshold>
				<split pos="left">
					<output> 1.2756867408752441 </output>
				</split>
				<split pos="right">
					<feature> 134 </feature>
					<threshold> 0.0 </threshold>
					<split pos="left">
						<feature> 11 </feature>
						<threshold> 0.0 </threshold>
						<split pos="left">
							<output> 0.6271886825561523 </output>
						</split>
						<split pos="right">
							<feature> 128 </feature>
							<threshold> 5.3909832E7 </threshold>
							<split pos="left">
								<feature> 108 </feature>
								<threshold> 27.360245 </threshold>
								<split pos="left">
									<feature> 109 </feature>
									<threshold> 25.912046 </threshold>
									<split pos="left">
										<feature> 65 </feature>
										<threshold> 0.01171875 </threshold>
										<split pos="left">
											<output> -0.6765979528427124 </output>
										</split>
										<split pos="right">
											<feature> 131 </feature>
											<threshold> 768.97656 </threshold>
											<split pos="left">
												<output> 0.2618493437767029 </output>
											</split>
											<split pos="right">
												<output> -0.11574216187000275 </output>
											</split>
										</split>
									</split>
									<split pos="right">
										<output> 0.6883741021156311 </output>
									</split>
								</split>
								<split pos="right">
									<output> 0.42893415689468384 </output>
								</split>
							</split>
							<split pos="right">
								<output> 0.857523500919342 </output>
							</split>
						</split>
					</split>
					<split pos="right">
						<output> 0.8601719737052917 </output>
					</split>
				</split>
			</split>
		</split>
	</tree>
	<tree id="28" weight="0.1">
		<split>
			<feature> 14 </feature>
			<threshold> 2.0 </threshold>
			<split pos="left">
				<feature> 6 </feature>
				<threshold> 0.5 </threshold>
				<split pos="left">
					<output> 1.3270443677902222 </output>
				</split>
				<split pos="right">
					<output> -1.4723014831542969 </output>
				</split>
			</split>
			<split pos="right">
				<feature> 134 </feature>
				<threshold> 0.0 </threshold>
				<split pos="left">
					<feature> 11 </feature>
					<threshold> 0.0 </threshold>
					<split pos="left">
						<output> 0.5488473176956177 </output>
					</split>
					<split pos="right">
						<feature> 128 </feature>
						<threshold> 5.3909832E7 </threshold>
						<split pos="left">
							<feature> 108 </feature>
							<threshold> 27.360245 </threshold>
							<split pos="left">
								<feature> 109 </feature>
								<threshold> 26.962534 </threshold>
								<split pos="left">
									<output> -0.2533525824546814 </output>
								</split>
								<split pos="right">
									<output> 0.699586808681488 </output>
								</split>
							</split>
							<split pos="right">
								<output> 0.4030202627182007 </output>
							</split>
						</split>
						<split pos="right">
							<output> 0.8249589204788208 </output>
						</split>
					</split>
				</split>
				<split pos="right">
					<feature> 49 </feature>
					<threshold> 0.384615 </threshold>
					<split pos="left">
						<output> 0.7140082120895386 </output>
					</split>
					<split pos="right">
						<feature> 123 </feature>
						<threshold> -2.3195825 </threshold>
						<split pos="left">
							<output> 0.9845309853553772 </output>
						</split>
						<split pos="right">
							<output> 1.2570618391036987 </output>
						</split>
					</split>
				</split>
			</split>
		</split>
	</tree>
	<tree id="29" weight="0.1">
		<split>
			<feature> 14 </feature>
			<threshold> 2.0 </threshold>
			<split pos="left">
				<feature> 16 </feature>
				<threshold> 16.817303 </threshold>
				<split pos="left">
					<output> -1.3806540966033936 </output>
				</split>
				<split pos="right">
					<output> 1.2879281044006348 </output>
				</split>
			</split>
			<split pos="right">
				<feature> 49 </feature>
				<threshold> 0.375 </threshold>
				<split pos="left">
					<feature> 127 </feature>
					<threshold> 7.0 </threshold>
					<split pos="left">
						<output> 1.2101346254348755 </output>
					</split>
					<split pos="right">
						<feature> 11 </feature>
						<threshold> 0.0 </threshold>
						<split pos="left">
							<output> 0.5359293222427368 </output>
						</split>
						<split pos="right">
							<feature> 128 </feature>
							<threshold> 5.3909832E7 </threshold>
							<split pos="left">
								<feature> 55 </feature>
								<threshold> 0.005859375 </threshold>
								<split pos="left">
									<output> -0.5115892291069031 </output>
								</split>
								<split pos="right">
									<feature> 108 </feature>
									<threshold> 24.73666 </threshold>
									<split pos="left">
										<output> 0.003787638619542122 </output>
									</split>
									<split pos="right">
										<output> 0.45852547883987427 </output>
									</split>
								</split>
							</split>
							<split pos="right">
								<output> 0.7907052636146545 </output>
							</split>
						</split>
					</split>
				</split>
				<split pos="right">
					<feature> 53 </feature>
					<threshold> 0.4 </threshold>
					<split pos="left">
						<output> 0.3618433177471161 </output>
					</split>
					<split pos="right">
						<output> 1.199021577835083 </output>
					</split>
				</split>
			</split>
		</split>
	</tree>
	<tree id="30" weight="0.1">
		<split>
			<feature> 14 </feature>
			<threshold> 2.0 </threshold>
			<split pos="left">
				<output> 1.2340809106826782 </output>
			</split>
			<split pos="right">
				<feature> 134 </feature>
				<threshold> 0.0 </threshold>
				<split pos="left">
					<feature> 11 </feature>
					<threshold> 0.0 </threshold>
					<split pos="left">
						<output> 0.46463075280189514 </output>
					</split>
					<split pos="right">
						<feature> 128 </feature>
						<threshold> 5.3909832E7 </threshold>
						<split pos="left">
							<feature> 110 </feature>
							<threshold> 70.587944 </threshold>
							<split pos="left">
								<feature> 50 </feature>
								<threshold> 0.030133924 </threshold>
								<split pos="left">
									<output> -0.5846179723739624 </output>
								</split>
								<split pos="right">
									<feature> 114 </feature>
									<threshold> -1.2070255 </threshold>
									<split pos="left">
										<feature> 85 </feature>
										<threshold> 0.0 </threshold>
										<split pos="left">
											<output> -2.737894296646118 </output>
										</split>
										<split pos="right">
											<feature> 131 </feature>
											<threshold> 512.9844 </threshold>
											<split pos="left">
												<output> 0.29026278853416443 </output>
											</split>
											<split pos="right">
												<output> -0.062428444623947144 </output>
											</split>
										</split>
									</split>
									<split pos="right">
										<output> 0.9462634325027466 </output>
									</split>
								</split>
							</split>
							<split pos="right">
								<output> 1.1060398817062378 </output>
							</split>
						</split>
						<split pos="right">
							<output> 0.7510759830474854 </output>
						</split>
					</split>
				</split>
				<split pos="right">
					<output> 0.8414560556411743 </output>
				</split>
			</split>
		</split>
	</tree>
	<tree id="31" weight="0.1">
		<split>
			<feature> 14 </feature>
			<threshold> 2.0 </threshold>
			<split pos="left">
				<output> 1.2030028104782104 </output>
			</split>
			<split pos="right">
				<feature> 134 </feature>
				<threshold> 0.0 </threshold>
				<split pos="left">
					<feature> 11 </feature>
					<threshold> 0.0 </threshold>
					<split pos="left">
						<output> 0.39839571714401245 </output>
					</split>
					<split pos="right">
						<feature> 128 </feature>
						<threshold> 5.3909832E7 </threshold>
						<split pos="left">
							<feature> 108 </feature>
							<threshold> 24.549261 </threshold>
							<split pos="left">
								<feature> 109 </feature>
								<threshold> 26.962534 </threshold>
								<split pos="left">
									<feature> 54 </feature>
									<threshold> 0.153846 </threshold>
									<split pos="left">
										<feature> 64 </feature>
										<threshold> 0.2 </threshold>
										<split pos="left">
											<output> -0.3152317702770233 </output>
										</split>
										<split pos="right">
											<output> -1.8826886415481567 </output>
										</split>
									</split>
									<split pos="right">
										<output> 0.32017672061920166 </output>
									</split>
								</split>
								<split pos="right">
									<output> 0.8581334948539734 </output>
								</split>
							</split>
							<split pos="right">
								<output> 0.2595750391483307 </output>
							</split>
						</split>
						<split pos="right">
							<output> 0.6786336898803711 </output>
						</split>
					</split>
				</split>
				<split pos="right">
					<feature> 49 </feature>
					<threshold> 0.384615 </threshold>
					<split pos="left">
						<output> 0.7325122356414795 </output>
					</split>
					<split pos="right">
						<output> 1.0962766408920288 </output>
					</split>
				</split>
			</split>
		</split>
	</tree>
	<tree id="32" weight="0.1">
		<split>
			<feature> 14 </feature>
			<threshold> 2.0 </threshold>
			<split pos="left">
				<output> 1.1743589639663696 </output>
			</split>
			<split pos="right">
				<feature> 134 </feature>
				<threshold> 0.0 </threshold>
				<split pos="left">
					<feature> 128 </feature>
					<threshold> 7.68878E7 </threshold>
					<split pos="left">
						<feature> 128 </feature>
						<threshold> 6.6282584E7 </threshold>
						<split pos="left">
							<feature> 11 </feature>
							<threshold> 0.0 </threshold>
							<split pos="left">
								<output> 0.3525477349758148 </output>
							</split>
							<split pos="right">
								<feature> 128 </feature>
								<threshold> 5.3909832E7 </threshold>
								<split pos="left">
									<feature> 110 </feature>
									<threshold> 70.587944 </threshold>
									<split pos="left">
										<feature> 109 </feature>
										<threshold> 20.484528 </threshold>
										<split pos="left">
											<feature> 61 </feature>
											<threshold> 0.01171875 </threshold>
											<split pos="left">
												<output> -0.6308771371841431 </output>
											</split>
											<split pos="right">
												<output> -0.05997876450419426 </output>
											</split>
										</split>
										<split pos="right">
											<output> 0.2833707630634308 </output>
										</split>
									</split>
									<split pos="right">
										<output> 1.0703097581863403 </output>
									</split>
								</split>
								<split pos="right">
									<output> 0.6868823766708374 </output>
								</split>
							</split>
						</split>
						<split pos="right">
							<output> 0.9795152544975281 </output>
						</split>
					</split>
					<split pos="right">
						<output> -10.69227123260498 </output>
					</split>
				</split>
				<split pos="right">
					<output> 0.8131494522094727 </output>
				</split>
			</split>
		</split>
	</tree>
	<tree id="33" weight="0.1">
		<split>
			<feature> 14 </feature>
			<threshold> 2.0 </threshold>
			<split pos="left">
				<output> 1.144486904144287 </output>
			</split>
			<split pos="right">
				<feature> 134 </feature>
				<threshold> 0.0 </threshold>
				<split pos="left">
					<feature> 128 </feature>
					<threshold> 7.68878E7 </threshold>
					<split pos="left">
						<feature> 128 </feature>
						<threshold> 6.6282584E7 </threshold>
						<split pos="left">
							<feature> 11 </feature>
							<threshold> 0.0 </threshold>
							<split pos="left">
								<output> 0.3064536452293396 </output>
							</split>
							<split pos="right">
								<feature> 128 </feature>
								<threshold> 5.3909832E7 </threshold>
								<split pos="left">
									<feature> 108 </feature>
									<threshold> 24.73666 </threshold>
									<split pos="left">
										<feature> 109 </feature>
										<threshold> 25.912046 </threshold>
										<split pos="left">
											<feature> 64 </feature>
											<threshold> 0.3 </threshold>
											<split pos="left">
												<output> -0.2683641314506531 </output>
											</split>
											<split pos="right">
												<output> 0.6228582859039307 </output>
											</split>
										</split>
										<split pos="right">
											<output> 0.8351354598999023 </output>
										</split>
									</split>
									<split pos="right">
										<output> 0.24948664009571075 </output>
									</split>
								</split>
								<split pos="right">
									<output> 0.6565793752670288 </output>
								</split>
							</split>
						</split>
						<split pos="right">
							<output> 0.9662742614746094 </output>
						</split>
					</split>
					<split pos="right">
						<output> -4.304525852203369 </output>
					</split>
				</split>
				<split pos="right">
					<output> 0.8053270578384399 </output>
				</split>
			</split>
		</split>
	</tree>
	<tree id="34" weight="0.1">
		<split>
			<feature> 14 </feature>
			<threshold> 2.0 </threshold>
			<split pos="left">
				<output> 1.1219757795333862 </output>
			</split>
			<split pos="right">
				<feature> 127 </feature>
				<threshold> 7.0 </threshold>
				<split pos="left">
					<output> 1.0756160020828247 </output>
				</split>
				<split pos="right">
					<feature> 134 </feature>
					<threshold> 0.0 </threshold>
					<split pos="left">
						<feature> 131 </feature>
						<threshold> 1024.9688 </threshold>
						<split pos="left">
							<output> 0.2556956112384796 </output>
						</split>
						<split pos="right">
							<feature> 110 </feature>
							<threshold> 70.587944 </threshold>
							<split pos="left">
								<feature> 133 </feature>
								<threshold> 236.0 </threshold>
								<split pos="left">
									<feature> 110 </feature>
									<threshold> 37.046047 </threshold>
									<split pos="left">
										<feature> 49 </feature>
										<threshold> 0.555556 </threshold>
										<split pos="left">
											<feature> 84 </feature>
											<threshold> 21.580345 </threshold>
											<split pos="left">
												<output> -0.247545525431633 </output>
											</split>
											<split pos="right">
												<output> -1.0944894552230835 </output>
											</split>
										</split>
										<split pos="right">
											<output> -2.347609043121338 </output>
										</split>
									</split>
									<split pos="right">
										<output> 0.25230324268341064 </output>
									</split>
								</split>
								<split pos="right">
									<output> -1.5536795854568481 </output>
								</split>
							</split>
							<split pos="right">
								<output> 1.0432069301605225 </output>
							</split>
						</split>
					</split>
					<split pos="right">
						<output> 0.7099602222442627 </output>
					</split>
				</split>
			</split>
		</split>
	</tree>
	<tree id="35" weight="0.1">
		<split>
			<feature> 14 </feature>
			<threshold> 2.0 </threshold>
			<split pos="left">
				<output> 1.0996593236923218 </output>
			</split>
			<split pos="right">
				<feature> 134 </feature>
				<threshold> 0.0 </threshold>
				<split pos="left">
					<feature> 131 </feature>
					<threshold> 1024.9688 </threshold>
					<split pos="left">
						<output> 0.21691662073135376 </output>
					</split>
					<split pos="right">
						<feature> 110 </feature>
						<threshold> 70.587944 </threshold>
						<split pos="left">
							<feature> 4 </feature>
							<threshold> 3.0 </threshold>
							<split pos="left">
								<feature> 49 </feature>
								<threshold> 0.3 </threshold>
								<split pos="left">
									<feature> 109 </feature>
									<threshold> 20.484528 </threshold>
									<split pos="left">
										<feature> 11 </feature>
										<threshold> 0.0 </threshold>
										<split pos="left">
											<output> 0.1703532338142395 </output>
										</split>
										<split pos="right">
											<output> -0.30699899792671204 </output>
										</split>
									</split>
									<split pos="right">
										<output> 0.7393958568572998 </output>
									</split>
								</split>
								<split pos="right">
									<output> -0.39897510409355164 </output>
								</split>
							</split>
							<split pos="right">
								<output> 0.5773921608924866 </output>
							</split>
						</split>
						<split pos="right">
							<output> 1.0179145336151123 </output>
						</split>
					</split>
				</split>
				<split pos="right">
					<feature> 127 </feature>
					<threshold> 7.0 </threshold>
					<split pos="left">
						<output> 1.076258659362793 </output>
					</split>
					<split pos="right">
						<output> 0.7238869071006775 </output>
					</split>
				</split>
			</split>
		</split>
	</tree>
	<tree id="36" weight="0.1">
		<split>
			<feature> 14 </feature>
			<threshold> 2.0 </threshold>
			<split pos="left">
				<output> 1.0682669878005981 </output>
			</split>
			<split pos="right">
				<feature> 134 </feature>
				<threshold> 0.0 </threshold>
				<split pos="left">
					<feature> 11 </feature>
					<threshold> 0.0 </threshold>
					<split pos="left">
						<output> 0.26221713423728943 </output>
					</split>
					<split pos="right">
						<feature> 128 </feature>
						<threshold> 5.3909832E7 </threshold>
						<split pos="left">
							<feature> 109 </feature>
							<threshold> 20.484528 </threshold>
							<split pos="left">
								<feature> 70 </feature>
								<threshold> 0.027326232 </threshold>
								<split pos="left">
									<feature> 49 </feature>
									<threshold> 0.363636 </threshold>
									<split pos="left">
										<feature> 108 </feature>
										<threshold> 27.172846 </threshold>
										<split pos="left">
											<output> -0.3095725476741791 </output>
										</split>
										<split pos="right">
											<output> 0.2859038710594177 </output>
										</split>
									</split>
									<split pos="right">
										<output> -1.0134882926940918 </output>
									</split>
								</split>
								<split pos="right">
									<output> -4.528513431549072 </output>
								</split>
							</split>
							<split pos="right">
								<output> 0.2336476743221283 </output>
							</split>
						</split>
						<split pos="right">
							<output> 0.6021056771278381 </output>
						</split>
					</split>
				</split>
				<split pos="right">
					<feature> 49 </feature>
					<threshold> 0.375 </threshold>
					<split pos="left">
						<output> 0.7118502855300903 </output>
					</split>
					<split pos="right">
						<output> 0.8977446556091309 </output>
					</split>
				</split>
			</split>
		</split>
	</tree>
	<tree id="37" weight="0.1">
		<split>
			<feature> 134 </feature>
			<threshold> 0.0 </threshold>
			<split pos="left">
				<feature> 14 </feature>
				<threshold> 2.0 </threshold>
				<split pos="left">
					<output> 1.0467010736465454 </output>
				</split>
				<split pos="right">
					<feature> 11 </feature>
					<threshold> 0.0 </threshold>
					<split pos="left">
						<output> 0.19196881353855133 </output>
					</split>
					<split pos="right">
						<feature> 128 </feature>
						<threshold> 5.3909832E7 </threshold>
						<split pos="left">
							<feature> 74 </feature>
							<threshold> 26.40462 </threshold>
							<split pos="left">
								<feature> 70 </feature>
								<threshold> 0.027326232 </threshold>
								<split pos="left">
									<feature> 66 </feature>
									<threshold> 0.024902344 </threshold>
									<split pos="left">
										<output> -0.29429396986961365 </output>
									</split>
									<split pos="right">
										<output> 0.8343373537063599 </output>
									</split>
								</split>
								<split pos="right">
									<output> -3.242159843444824 </output>
								</split>
							</split>
							<split pos="right">
								<output> 0.2984650433063507 </output>
							</split>
						</split>
						<split pos="right">
							<output> 0.5595000982284546 </output>
						</split>
					</split>
				</split>
			</split>
			<split pos="right">
				<feature> 49 </feature>
				<threshold> 0.384615 </threshold>
				<split pos="left">
					<feature> 130 </feature>
					<threshold> 63745.2 </threshold>
					<split pos="left">
						<output> 0.5029963850975037 </output>
					</split>
					<split pos="right">
						<output> 1.350115180015564 </output>
					</split>
				</split>
				<split pos="right">
					<output> 0.8770756721496582 </output>
				</split>
			</split>
		</split>
	</tree>
	<tree id="38" weight="0.1">
		<split>
			<feature> 134 </feature>
			<threshold> 270.7539 </threshold>
			<split pos="left">
				<feature> 14 </feature>
				<threshold> 2.0 </threshold>
				<split pos="left">
					<output> 1.0191600322723389 </output>
				</split>
				<split pos="right">
					<feature> 134 </feature>
					<threshold> 0.0 </threshold>
					<split pos="left">
						<feature> 110 </feature>
						<threshold> 70.587944 </threshold>
						<split pos="left">
							<feature> 11 </feature>
							<threshold> 0.0 </threshold>
							<split pos="left">
								<output> 0.14483843743801117 </output>
							</split>
							<split pos="right">
								<feature> 128 </feature>
								<threshold> 5.3909832E7 </threshold>
								<split pos="left">
									<feature> 74 </feature>
									<threshold> 26.40462 </threshold>
									<split pos="left">
										<output> -0.3564054071903229 </output>
									</split>
									<split pos="right">
										<output> 0.26882731914520264 </output>
									</split>
								</split>
								<split pos="right">
									<output> 0.5216580629348755 </output>
								</split>
							</split>
						</split>
						<split pos="right">
							<output> 0.98043292760849 </output>
						</split>
					</split>
					<split pos="right">
						<feature> 49 </feature>
						<threshold> 0.375 </threshold>
						<split pos="left">
							<output> 0.5420580506324768 </output>
						</split>
						<split pos="right">
							<output> 0.9001091122627258 </output>
						</split>
					</split>
				</split>
			</split>
			<split pos="right">
				<feature> 69 </feature>
				<threshold> 0.006198 </threshold>
				<split pos="left">
					<output> 1.0683022737503052 </output>
				</split>
				<split pos="right">
					<output> 1.3313684463500977 </output>
				</split>
			</split>
		</split>
	</tree>
	<tree id="39" weight="0.1">
		<split>
			<feature> 134 </feature>
			<threshold> 270.7539 </threshold>
			<split pos="left">
				<feature> 134 </feature>
				<threshold> 0.0 </threshold>
				<split pos="left">
					<feature> 14 </feature>
					<threshold> 2.0 </threshold>
					<split pos="left">
						<output> 0.990649938583374 </output>
					</split>
					<split pos="right">
						<feature> 128 </feature>
						<threshold> 5.3909832E7 </threshold>
						<split pos="left">
							<feature> 11 </feature>
							<threshold> 0.0 </threshold>
							<split pos="left">
								<output> 0.20530633628368378 </output>
							</split>
							<split pos="right">
								<feature> 122 </feature>
								<threshold> -27.399635 </threshold>
								<split pos="left">
									<output> 0.04554833471775055 </output>
								</split>
								<split pos="right">
									<output> -0.42627665400505066 </output>
								</split>
							</split>
						</split>
						<split pos="right">
							<output> -0.5153669714927673 </output>
						</split>
					</split>
				</split>
				<split pos="right">
					<feature> 130 </feature>
					<threshold> 63745.2 </threshold>
					<split pos="left">
						<output> 0.3847752809524536 </output>
					</split>
					<split pos="right">
						<output> 1.1934428215026855 </output>
					</split>
				</split>
			</split>
			<split pos="right">
				<feature> 69 </feature>
				<threshold> 0.006173 </threshold>
				<split pos="left">
					<output> 1.060733675956726 </output>
				</split>
				<split pos="right">
					<feature> 81 </feature>
					<threshold> 14.470906 </threshold>
					<split pos="left">
						<output> 1.198590636253357 </output>
					</split>
					<split pos="right">
						<output> 1.342957615852356 </output>
					</split>
				</split>
			</split>
		</split>
	</tree>
	<tree id="40" weight="0.1">
		<split>
			<feature> 134 </feature>
			<threshold> 270.7539 </threshold>
			<split pos="left">
				<feature> 134 </feature>
				<threshold> 0.0 </threshold>
				<split pos="left">
					<feature> 14 </feature>
					<threshold> 2.0 </threshold>
					<split pos="left">
						<output> 0.9671486616134644 </output>
					</split>
					<split pos="right">
						<feature> 16 </feature>
						<threshold> 10.348594 </threshold>
						<split pos="left">
							<output> -0.5292438864707947 </output>
						</split>
						<split pos="right">
							<output> -0.12239008396863937 </output>
						</split>
					</split>
				</split>
				<split pos="right">
					<feature> 130 </feature>
					<threshold> 64767.37 </threshold>
					<split pos="left">
						<feature> 130 </feature>
						<threshold> 370.54297 </threshold>
						<split pos="left">
							<output> -1.5844078063964844 </output>
						</split>
						<split pos="right">
							<feature> 49 </feature>
							<threshold> 0.375 </threshold>
							<split pos="left">
								<output> 0.6691094636917114 </output>
							</split>
							<split pos="right">
								<output> 0.9021158218383789 </output>
							</split>
						</split>
					</split>
					<split pos="right">
						<feature> 53 </feature>
						<threshold> 0.105263 </threshold>
						<split pos="left">
							<output> 1.193192481994629 </output>
						</split>
						<split pos="right">
							<output> 1.209262490272522 </output>
						</split>
					</split>
				</split>
			</split>
			<split pos="right">
				<feature> 69 </feature>
				<threshold> 0.0064 </threshold>
				<split pos="left">
					<output> 1.015356183052063 </output>
				</split>
				<split pos="right">
					<output> 1.228687047958374 </output>
				</split>
			</split>
		</split>
	</tree>
	<tree id="41" weight="0.1">
		<split>
			<feature> 134 </feature>
			<threshold> 270.7539 </threshold>
			<split pos="left">
				<feature> 134 </feature>
				<threshold> 0.0 </threshold>
				<split pos="left">
					<feature> 14 </feature>
					<threshold> 2.0 </threshold>
					<split pos="left">
						<output> 0.9487033486366272 </output>
					</split>
					<split pos="right">
						<feature> 18 </feature>
						<threshold> 17.692533 </threshold>
						<split pos="left">
							<output> -0.6547914743423462 </output>
						</split>
						<split pos="right">
							<output> -0.19415953755378723 </output>
						</split>
					</split>
				</split>
				<split pos="right">
					<feature> 130 </feature>
					<threshold> 63745.2 </threshold>
					<split pos="left">
						<output> 0.41150549054145813 </output>
					</split>
					<split pos="right">
						<feature> 108 </feature>
						<threshold> 24.549261 </threshold>
						<split pos="left">
							<output> 1.084686279296875 </output>
						</split>
						<split pos="right">
							<output> 1.218612551689148 </output>
						</split>
					</split>
				</split>
			</split>
			<split pos="right">
				<feature> 135 </feature>
				<threshold> 2252.711 </threshold>
				<split pos="left">
					<feature> 69 </feature>
					<threshold> 0.006173 </threshold>
					<split pos="left">
						<output> 0.8664475679397583 </output>
					</split>
					<split pos="right">
						<output> 1.1812821626663208 </output>
					</split>
				</split>
				<split pos="right">
					<feature> 48 </feature>
					<threshold> 0.51171875 </threshold>
					<split pos="left">
						<output> 1.246490716934204 </output>
					</split>
					<split pos="right">
						<output> 1.2286505699157715 </output>
					</split>
				</split>
			</split>
		</split>
	</tree>
	<tree id="42" weight="0.1">
		<split>
			<feature> 134 </feature>
			<threshold> 270.7539 </threshold>
			<split pos="left">
				<feature> 134 </feature>
				<threshold> 0.0 </threshold>
				<split pos="left">
					<feature> 14 </feature>
					<threshold> 2.0 </threshold>
					<split pos="left">
						<output> 0.9340470433235168 </output>
					</split>
					<split pos="right">
						<feature> 18 </feature>
						<threshold> 17.692533 </threshold>
						<split pos="left">
							<output> -0.6640071272850037 </output>
						</split>
						<split pos="right">
							<output> -0.1895497590303421 </output>
						</split>
					</split>
				</split>
				<split pos="right">
					<feature> 130 </feature>
					<threshold> 64767.37 </threshold>
					<split pos="left">
						<output> 0.39669182896614075 </output>
					</split>
					<split pos="right">
						<feature> 43 </feature>
						<threshold> 0.888889 </threshold>
						<split pos="left">
							<feature> 111 </feature>
							<threshold> -21.98515 </threshold>
							<split pos="left">
								<output> 1.1677906513214111 </output>
							</split>
							<split pos="right">
								<output> 1.0868473052978516 </output>
							</split>
						</split>
						<split pos="right">
							<output> 1.2528077363967896 </output>
						</split>
					</split>
				</split>
			</split>
			<split pos="right">
				<feature> 135 </feature>
				<threshold> 2252.711 </threshold>
				<split pos="left">
					<feature> 94 </feature>
					<threshold> 26.544493 </threshold>
					<split pos="left">
						<output> 0.8520712852478027 </output>
					</split>
					<split pos="right">
						<output> 1.1913836002349854 </output>
					</split>
				</split>
				<split pos="right">
					<output> 1.1733349561691284 </output>
				</split>
			</split>
		</split>
	</tree>
	<tree id="43" weight="0.1">
		<split>
			<feature> 134 </feature>
			<threshold> 270.7539 </threshold>
			<split pos="left">
				<feature> 134 </feature>
				<threshold> 0.0 </threshold>
				<split pos="left">
					<feature> 14 </feature>
					<threshold> 2.0 </threshold>
					<split pos="left">
						<output> 0.8934040665626526 </output>
					</split>
					<split pos="right">
						<feature> 18 </feature>
						<threshold> 19.132704 </threshold>
						<split pos="left">
							<output> -0.6166739463806152 </output>
						</split>
						<split pos="right">
							<output> -0.14351198077201843 </output>
						</split>
					</split>
				</split>
				<split pos="right">
					<feature> 130 </feature>
					<threshold> 64767.37 </threshold>
					<split pos="left">
						<output> 0.35763779282569885 </output>
					</split>
					<split pos="right">
						<feature> 43 </feature>
						<threshold> 0.888889 </threshold>
						<split pos="left">
							<output> 1.054802417755127 </output>
						</split>
						<split pos="right">
							<output> 1.2274454832077026 </output>
						</split>
					</split>
				</split>
			</split>
			<split pos="right">
				<feature> 69 </feature>
				<threshold> 0.006173 </threshold>
				<split pos="left">
					<feature> 127 </feature>
					<threshold> 11.0 </threshold>
					<split pos="left">
						<output> 1.256468415260315 </output>
					</split>
					<split pos="right">
						<feature> 130 </feature>
						<threshold> 65278.457 </threshold>
						<split pos="left">
							<output> 0.7154691815376282 </output>
						</split>
						<split pos="right">
							<output> 0.9991435408592224 </output>
						</split>
					</split>
				</split>
				<split pos="right">
					<output> 1.1512161493301392 </output>
				</split>
			</split>
		</split>
	</tree>
	<tree id="44" weight="0.1">
		<split>
			<feature> 134 </feature>
			<threshold> 270.7539 </threshold>
			<split pos="left">
				<feature> 134 </feature>
				<threshold> 0.0 </threshold>
				<split pos="left">
					<feature> 14 </feature>
					<threshold> 2.0 </threshold>
					<split pos="left">
						<output> 0.8661614656448364 </output>
					</split>
					<split pos="right">
						<feature> 16 </feature>
						<threshold> 10.456406 </threshold>
						<split pos="left">
							<output> -0.6038818955421448 </output>
						</split>
						<split pos="right">
							<output> -0.11109276115894318 </output>
						</split>
					</split>
				</split>
				<split pos="right">
					<feature> 130 </feature>
					<threshold> 64767.37 </threshold>
					<split pos="left">
						<feature> 130 </feature>
						<threshold> 370.54297 </threshold>
						<split pos="left">
							<output> -1.6016072034835815 </output>
						</split>
						<split pos="right">
							<output> 0.5342095494270325 </output>
						</split>
					</split>
					<split pos="right">
						<feature> 43 </feature>
						<threshold> 0.888889 </threshold>
						<split pos="left">
							<output> 1.016634464263916 </output>
						</split>
						<split pos="right">
							<output> 1.2054293155670166 </output>
						</split>
					</split>
				</split>
			</split>
			<split pos="right">
				<feature> 135 </feature>
				<threshold> 2252.711 </threshold>
				<split pos="left">
					<feature> 127 </feature>
					<threshold> 11.0 </threshold>
					<split pos="left">
						<output> 1.2290984392166138 </output>
					</split>
					<split pos="right">
						<output> 0.7586292028427124 </output>
					</split>
				</split>
				<split pos="right">
					<output> 1.0756468772888184 </output>
				</split>
			</split>
		</split>
	</tree>
	<tree id="45" weight="0.1">
		<split>
			<feature> 134 </feature>
			<threshold> 270.7539 </threshold>
			<split pos="left">
				<feature> 134 </feature>
				<threshold> 0.0 </threshold>
				<split pos="left">
					<feature> 14 </feature>
					<threshold> 2.0 </threshold>
					<split pos="left">
						<output> 0.7312088012695312 </output>
					</split>
					<split pos="right">
						<feature> 18 </feature>
						<threshold> 23.133177 </threshold>
						<split pos="left">
							<output> -0.5101737976074219 </output>
						</split>
						<split pos="right">
							<output> -0.011032233946025372 </output>
						</split>
					</split>
				</split>
				<split pos="right">
					<feature> 130 </feature>
					<threshold> 64767.37 </threshold>
					<split pos="left">
						<output> 0.28861093521118164 </output>
					</split>
					<split pos="right">
						<feature> 43 </feature>
						<threshold> 0.888889 </threshold>
						<split pos="left">
							<output> 1.0000989437103271 </output>
						</split>
						<split pos="right">
							<output> 1.1879773139953613 </output>
						</split>
					</split>
				</split>
			</split>
			<split pos="right">
				<feature> 135 </feature>
				<threshold> 2252.711 </threshold>
				<split pos="left">
					<feature> 127 </feature>
					<threshold> 11.0 </threshold>
					<split pos="left">
						<output> 1.199306845664978 </output>
					</split>
					<split pos="right">
						<feature> 69 </feature>
						<threshold> 0.003906 </threshold>
						<split pos="left">
							<output> 0.5844898819923401 </output>
						</split>
						<split pos="right">
							<output> 1.0633870363235474 </output>
						</split>
					</split>
				</split>
				<split pos="right">
					<output> 1.065535545349121 </output>
				</split>
			</split>
		</split>
	</tree>
	<tree id="46" weight="0.1">
		<split>
			<feature> 134 </feature>
			<threshold> 270.7539 </threshold>
			<split pos="left">
				<feature> 134 </feature>
				<threshold> 0.0 </threshold>
				<split pos="left">
					<feature> 14 </feature>
					<threshold> 2.0 </threshold>
					<split pos="left">
						<output> 0.7006700038909912 </output>
					</split>
					<split pos="right">
						<feature> 16 </feature>
						<threshold> 10.456406 </threshold>
						<split pos="left">
							<output> -0.5614579319953918 </output>
						</split>
						<split pos="right">
							<output> -0.09101197123527527 </output>
						</split>
					</split>
				</split>
				<split pos="right">
					<feature> 130 </feature>
					<threshold> 64767.37 </threshold>
					<split pos="left">
						<feature> 130 </feature>
						<threshold> 370.54297 </threshold>
						<split pos="left">
							<output> -1.5581588745117188 </output>
						</split>
						<split pos="right">
							<output> 0.42320486903190613 </output>
						</split>
					</split>
					<split pos="right">
						<feature> 43 </feature>
						<threshold> 0.888889 </threshold>
						<split pos="left">
							<output> 0.9659737348556519 </output>
						</split>
						<split pos="right">
							<output> 1.17171049118042 </output>
						</split>
					</split>
				</split>
			</split>
			<split pos="right">
				<feature> 135 </feature>
				<threshold> 2252.711 </threshold>
				<split pos="left">
					<feature> 127 </feature>
					<threshold> 11.0 </threshold>
					<split pos="left">
						<output> 1.1735243797302246 </output>
					</split>
					<split pos="right">
						<output> 0.6437156796455383 </output>
					</split>
				</split>
				<split pos="right">
					<output> 1.0584629774093628 </output>
				</split>
			</split>
		</split>
	</tree>
	<tree id="47" weight="0.1">
		<split>
			<feature> 134 </feature>
			<threshold> 270.7539 </threshold>
			<split pos="left">
				<feature> 134 </feature>
				<threshold> 0.0 </threshold>
				<split pos="left">
					<feature> 14 </feature>
					<threshold> 2.0 </threshold>
					<split pos="left">
						<output> 0.6710847020149231 </output>
					</split>
					<split pos="right">
						<feature> 18 </feature>
						<threshold> 23.133177 </threshold>
						<split pos="left">
							<output> -0.47316521406173706 </output>
						</split>
						<split pos="right">
							<output> -0.012468269094824791 </output>
						</split>
					</split>
				</split>
				<split pos="right">
					<feature> 130 </feature>
					<threshold> 64767.37 </threshold>
					<split pos="left">
						<feature> 130 </feature>
						<threshold> 370.54297 </threshold>
						<split pos="left">
							<output> -1.395872712135315 </output>
						</split>
						<split pos="right">
							<output> 0.3795228898525238 </output>
						</split>
					</split>
					<split pos="right">
						<feature> 43 </feature>
						<threshold> 0.96 </threshold>
						<split pos="left">
							<output> 0.9403383731842041 </output>
						</split>
						<split pos="right">
							<output> 1.1584450006484985 </output>
						</split>
					</split>
				</split>
			</split>
			<split pos="right">
				<feature> 135 </feature>
				<threshold> 2252.711 </threshold>
				<split pos="left">
					<feature> 127 </feature>
					<threshold> 11.0 </threshold>
					<split pos="left">
						<output> 1.1508376598358154 </output>
					</split>
					<split pos="right">
						<output> 0.6054037809371948 </output>
					</split>
				</split>
				<split pos="right">
					<output> 1.0351239442825317 </output>
				</split>
			</split>
		</split>
	</tree>
	<tree id="48" weight="0.1">
		<split>
			<feature> 134 </feature>
			<threshold> 270.7539 </threshold>
			<split pos="left">
				<feature> 134 </feature>
				<threshold> 0.0 </threshold>
				<split pos="left">
					<feature> 14 </feature>
					<threshold> 2.0 </threshold>
					<split pos="left">
						<output> 0.643858015537262 </output>
					</split>
					<split pos="right">
						<feature> 128 </feature>
						<threshold> 5.3909832E7 </threshold>
						<split pos="left">
							<feature> 130 </feature>
							<threshold> 115.0 </threshold>
							<split pos="left">
								<output> -0.5121544003486633 </output>
							</split>
							<split pos="right">
								<feature> 16 </feature>
								<threshold> 12.612644 </threshold>
								<split pos="left">
									<output> -0.462277352809906 </output>
								</split>
								<split pos="right">
									<output> 0.016668274998664856 </output>
								</split>
							</split>
						</split>
						<split pos="right">
							<output> -0.38001206517219543 </output>
						</split>
					</split>
				</split>
				<split pos="right">
					<feature> 130 </feature>
					<threshold> 64767.37 </threshold>
					<split pos="left">
						<feature> 130 </feature>
						<threshold> 26947.012 </threshold>
						<split pos="left">
							<output> -0.15247243642807007 </output>
						</split>
						<split pos="right">
							<output> 0.6981349587440491 </output>
						</split>
					</split>
					<split pos="right">
						<output> 0.9542183876037598 </output>
					</split>
				</split>
			</split>
			<split pos="right">
				<feature> 135 </feature>
				<threshold> 2252.711 </threshold>
				<split pos="left">
					<output> 0.6245901584625244 </output>
				</split>
				<split pos="right">
					<output> 1.0172090530395508 </output>
				</split>
			</split>
		</split>
	</tree>
	<tree id="49" weight="0.1">
		<split>
			<feature> 134 </feature>
			<threshold> 270.7539 </threshold>
			<split pos="left">
				<feature> 134 </feature>
				<threshold> 0.0 </threshold>
				<split pos="left">
					<feature> 14 </feature>
					<threshold> 2.0 </threshold>
					<split pos="left">
						<output> 0.6174486875534058 </output>
					</split>
					<split pos="right">
						<feature> 128 </feature>
						<threshold> 5.3909832E7 </threshold>
						<split pos="left">
							<feature> 110 </feature>
							<threshold> 70.587944 </threshold>
							<split pos="left">
								<feature> 4 </feature>
								<threshold> 3.0 </threshold>
								<split pos="left">
									<output> -0.32351401448249817 </output>
								</split>
								<split pos="right">
									<output> 0.5732110142707825 </output>
								</split>
							</split>
							<split pos="right">
								<output> 0.942714512348175 </output>
							</split>
						</split>
						<split pos="right">
							<output> -0.4195409119129181 </output>
						</split>
					</split>
				</split>
				<split pos="right">
					<feature> 130 </feature>
					<threshold> 64767.37 </threshold>
					<split pos="left">
						<feature> 130 </feature>
						<threshold> 26947.012 </threshold>
						<split pos="left">
							<output> -0.19209036231040955 </output>
						</split>
						<split pos="right">
							<output> 0.6690158843994141 </output>
						</split>
					</split>
					<split pos="right">
						<output> 0.9255815148353577 </output>
					</split>
				</split>
			</split>
			<split pos="right">
				<feature> 135 </feature>
				<threshold> 2252.711 </threshold>
				<split pos="left">
					<output> 0.5678151845932007 </output>
				</split>
				<split pos="right">
					<output> 0.9860510230064392 </output>
				</split>
			</split>
		</split>
	</tree>
	<tree id="50" weight="0.1">
		<split>
			<feature> 134 </feature>
			<threshold> 270.7539 </threshold>
			<split pos="left">
				<feature> 134 </feature>
				<threshold> 0.0 </threshold>
				<split pos="left">
					<feature> 14 </feature>
					<threshold> 2.0 </threshold>
					<split pos="left">
						<output> 0.5757058262825012 </output>
					</split>
					<split pos="right">
						<feature> 128 </feature>
						<threshold> 5.3909832E7 </threshold>
						<split pos="left">
							<feature> 130 </feature>
							<threshold> 115.0 </threshold>
							<split pos="left">
								<output> -0.6259576678276062 </output>
							</split>
							<split pos="right">
								<feature> 4 </feature>
								<threshold> 3.0 </threshold>
								<split pos="left">
									<output> -0.30498069524765015 </output>
								</split>
								<split pos="right">
									<output> 0.5648806095123291 </output>
								</split>
							</split>
						</split>
						<split pos="right">
							<output> -0.38776278495788574 </output>
						</split>
					</split>
				</split>
				<split pos="right">
					<feature> 126 </feature>
					<threshold> 1.0 </threshold>
					<split pos="left">
						<feature> 118 </feature>
						<threshold> -22.029213 </threshold>
						<split pos="left">
							<output> 1.1259294748306274 </output>
						</split>
						<split pos="right">
							<output> 0.6504276394844055 </output>
						</split>
					</split>
					<split pos="right">
						<output> -0.06919511407613754 </output>
					</split>
				</split>
			</split>
			<split pos="right">
				<feature> 130 </feature>
				<threshold> 58123.254 </threshold>
				<split pos="left">
					<output> 0.1116931140422821 </output>
				</split>
				<split pos="right">
					<output> 0.9751536846160889 </output>
				</split>
			</split>
		</split>
	</tree>
	<tree id="51" weight="0.1">
		<split>
			<feature> 134 </feature>
			<threshold> 270.7539 </threshold>
			<split pos="left">
				<feature> 134 </feature>
				<threshold> 0.0 </threshold>
				<split pos="left">
					<feature> 14 </feature>
					<threshold> 2.0 </threshold>
					<split pos="left">
						<output> 0.5375382304191589 </output>
					</split>
					<split pos="right">
						<feature> 130 </feature>
						<threshold> 115.0 </threshold>
						<split pos="left">
							<output> -0.5965773463249207 </output>
						</split>
						<split pos="right">
							<feature> 4 </feature>
							<threshold> 3.0 </threshold>
							<split pos="left">
								<feature> 106 </feature>
								<threshold> 67.8885 </threshold>
								<split pos="left">
									<feature> 109 </feature>
									<threshold> 27.137615 </threshold>
									<split pos="left">
										<output> -0.2937144637107849 </output>
									</split>
									<split pos="right">
										<output> -0.7112709283828735 </output>
									</split>
								</split>
								<split pos="right">
									<output> 0.895046591758728 </output>
								</split>
							</split>
							<split pos="right">
								<output> 0.5519143342971802 </output>
							</split>
						</split>
					</split>
				</split>
				<split pos="right">
					<feature> 126 </feature>
					<threshold> 1.0 </threshold>
					<split pos="left">
						<output> 0.7551887035369873 </output>
					</split>
					<split pos="right">
						<output> -0.10028306394815445 </output>
					</split>
				</split>
			</split>
			<split pos="right">
				<feature> 130 </feature>
				<threshold> 58123.254 </threshold>
				<split pos="left">
					<output> 0.051234226673841476 </output>
				</split>
				<split pos="right">
					<output> 0.9412731528282166 </output>
				</split>
			</split>
		</split>
	</tree>
	<tree id="52" weight="0.1">
		<split>
			<feature> 134 </feature>
			<threshold> 270.7539 </threshold>
			<split pos="left">
				<feature> 134 </feature>
				<threshold> 0.0 </threshold>
				<split pos="left">
					<feature> 14 </feature>
					<threshold> 2.0 </threshold>
					<split pos="left">
						<output> 0.5168017745018005 </output>
					</split>
					<split pos="right">
						<feature> 130 </feature>
						<threshold> 115.0 </threshold>
						<split pos="left">
							<output> -0.5687648057937622 </output>
						</split>
						<split pos="right">
							<feature> 74 </feature>
							<threshold> 41.747845 </threshold>
							<split pos="left">
								<feature> 109 </feature>
								<threshold> 39.043217 </threshold>
								<split pos="left">
									<output> -0.2713811695575714 </output>
								</split>
								<split pos="right">
									<output> -2.5147528648376465 </output>
								</split>
							</split>
							<split pos="right">
								<output> 0.4808957576751709 </output>
							</split>
						</split>
					</split>
				</split>
				<split pos="right">
					<feature> 126 </feature>
					<threshold> 1.0 </threshold>
					<split pos="left">
						<feature> 118 </feature>
						<threshold> -22.029213 </threshold>
						<split pos="left">
							<output> 1.0877203941345215 </output>
						</split>
						<split pos="right">
							<output> 0.5189541578292847 </output>
						</split>
					</split>
					<split pos="right">
						<output> -0.10433840751647949 </output>
					</split>
				</split>
			</split>
			<split pos="right">
				<feature> 130 </feature>
				<threshold> 58123.254 </threshold>
				<split pos="left">
					<output> 0.017969230189919472 </output>
				</split>
				<split pos="right">
					<output> 0.8895346522331238 </output>
				</split>
			</split>
		</split>
	</tree>
	<tree id="53" weight="0.1">
		<split>
			<feature> 134 </feature>
			<threshold> 270.7539 </threshold>
			<split pos="left">
				<feature> 134 </feature>
				<threshold> 0.0 </threshold>
				<split pos="left">
					<feature> 24 </feature>
					<threshold> 9.0 </threshold>
					<split pos="left">
						<feature> 14 </feature>
						<threshold> 2.0 </threshold>
						<split pos="left">
							<output> 0.48516252636909485 </output>
						</split>
						<split pos="right">
							<feature> 24 </feature>
							<threshold> 7.0 </threshold>
							<split pos="left">
								<feature> 130 </feature>
								<threshold> 115.0 </threshold>
								<split pos="left">
									<output> -0.5111884474754333 </output>
								</split>
								<split pos="right">
									<feature> 74 </feature>
									<threshold> 41.747845 </threshold>
									<split pos="left">
										<feature> 106 </feature>
										<threshold> 67.8885 </threshold>
										<split pos="left">
											<output> -0.2560204267501831 </output>
										</split>
										<split pos="right">
											<output> 0.834185004234314 </output>
										</split>
									</split>
									<split pos="right">
										<output> 0.5400567650794983 </output>
									</split>
								</split>
							</split>
							<split pos="right">
								<output> -3.881777048110962 </output>
							</split>
						</split>
					</split>
					<split pos="right">
						<output> 1.6045786142349243 </output>
					</split>
				</split>
				<split pos="right">
					<feature> 130 </feature>
					<threshold> 57867.71 </threshold>
					<split pos="left">
						<output> 0.06792083382606506 </output>
					</split>
					<split pos="right">
						<output> 0.7997642159461975 </output>
					</split>
				</split>
			</split>
			<split pos="right">
				<output> 0.5385748744010925 </output>
			</split>
		</split>
	</tree>
	<tree id="54" weight="0.1">
		<split>
			<feature> 134 </feature>
			<threshold> 270.7539 </threshold>
			<split pos="left">
				<feature> 134 </feature>
				<threshold> 0.0 </threshold>
				<split pos="left">
					<feature> 24 </feature>
					<threshold> 9.0 </threshold>
					<split pos="left">
						<feature> 131 </feature>
						<threshold> 63999.047 </threshold>
						<split pos="left">
							<feature> 130 </feature>
